%YAML:1.0
---
big_armor_descriptor: !!opencv-object-detector-hog
   winSize: [ 96, 24 ]
   blockSize: [ 16, 16 ]
   blockStride: [ 8, 8 ]
   cellSize: [ 8, 8 ]
   nbins: 9
   derivAperture: 1
   winSigma: 4.
   histogramNormType: 0
   L2HysThreshold: 2.0000000000000001e-01
   gammaCorrection: 1
   nlevels: 64
   signedGradient: 0
   SVMDetector: [ -8.45757965e-03, -6.83288835e-03, 2.67313588e-02,
       1.94787867e-02, 4.68932949e-02, 2.66275033e-02, 3.22300307e-02,
       2.08908562e-02, 5.54431556e-03, 2.15836745e-02, -7.21424725e-03,
       1.07554188e-02, 6.98657194e-03, 3.09440996e-02, 1.57139953e-02,
       2.39812750e-02, 1.48480888e-02, 1.14330370e-02, -5.91271278e-03,
       -2.31843777e-02, 9.61818453e-03, -2.32974458e-02, 1.42512433e-02,
       -2.29305960e-02, 1.09093655e-02, -8.22494086e-03, -1.05014378e-02,
       -7.01932237e-03, -3.48269306e-02, 1.77415106e-02, -2.52182279e-02,
       2.33175438e-02, -2.16678344e-02, 1.06840702e-02, -9.78288520e-03,
       -9.21649113e-03, 2.99999565e-02, 1.21958721e-02, 2.08591688e-02,
       7.25700334e-03, 4.26604748e-02, 1.59194395e-02, 3.06678656e-02,
       2.60499343e-02, 1.97856240e-02, 4.13413486e-03, 4.47090808e-03,
       2.98988651e-02, -6.42804708e-03, 4.13274430e-02, 1.15454337e-03,
       1.69818718e-02, 1.13623999e-02, -1.65490173e-02, -2.23027449e-03,
       -2.50227246e-02, 1.12170046e-02, -2.52637751e-02, 2.44252570e-02,
       -9.88593139e-03, 1.49352308e-02, -1.98548520e-03, -3.18236230e-03,
       -1.58776660e-02, -3.63582410e-02, 4.77724895e-03, -4.25380170e-02,
       3.73434275e-02, -1.77312586e-02, 4.53877309e-03, -1.79893412e-02,
       -2.99054347e-02, -3.18727158e-02, -2.20334791e-02, 7.11705629e-03,
       -2.37801298e-02, 6.58197561e-03, -3.43533047e-02, 5.31419227e-03,
       -2.04456523e-02, -2.36422997e-02, -2.98986137e-02,
       -3.73411812e-02, 1.61274765e-02, -3.02479137e-02, 2.63627358e-02,
       -2.40945294e-02, 8.68860818e-03, -1.57831479e-02, -2.96375733e-02,
       4.84804586e-02, 2.21373755e-02, 2.44261548e-02, -2.08451618e-02,
       1.83862038e-02, -2.04220135e-02, 1.76486410e-02, -6.41079666e-03,
       4.71099839e-02, 5.23436032e-02, 6.34670816e-03, 2.65116990e-02,
       -2.03927699e-02, 3.74331214e-02, -1.34525010e-02, 1.91849470e-02,
       -8.05552292e-04, 5.17159142e-02, -2.14232821e-02, -3.39789428e-02,
       5.30235749e-03, -2.93362420e-02, 1.24759665e-02, -1.98136009e-02,
       8.64914060e-03, -1.63943116e-02, -2.86459401e-02, -3.57816480e-02,
       -4.53610271e-02, -4.12698276e-03, -4.38708551e-02, 1.23333121e-02,
       -2.87113450e-02, 6.68517919e-03, -3.73878069e-02, -3.84413153e-02,
       6.01026155e-02, 1.34852026e-02, 2.81033907e-02, -1.25836609e-02,
       4.33589593e-02, -9.35772713e-03, 2.81501208e-02, 1.32927559e-02,
       5.27247153e-02, 3.60016525e-02, 1.38578529e-03, 2.57408917e-02,
       -1.77776143e-02, 3.92139778e-02, -1.48548316e-02, 2.36268677e-02,
       -4.69302712e-03, 2.49771401e-02, -2.09653303e-02, 1.04136998e-02,
       -2.36292705e-02, -2.85605006e-02, -7.08319321e-02,
       -2.48192046e-02, -5.19452989e-02, -4.24348526e-02,
       -3.43951359e-02, 1.10523738e-02, -2.06703097e-02, -3.87701392e-02,
       -2.70162635e-02, -6.68209046e-02, -1.78997088e-02,
       -4.08309512e-02, -2.51203422e-02, 6.18161587e-03, 5.64226918e-02,
       9.53942016e-02, 3.53154913e-02, -1.45138912e-02, -5.30049279e-02,
       -1.71702113e-02, -4.37593199e-02, -1.35465991e-02, 4.67551835e-02,
       2.73957141e-02, 3.64042558e-02, -3.93362269e-02, -3.36144157e-02,
       -5.87619282e-02, -1.79119948e-02, -4.00199480e-02, 1.75796729e-02,
       3.06942686e-02, -1.97428986e-02, -2.41670739e-02, -2.46312898e-02,
       -1.65048186e-02, -3.80763188e-02, -1.79998428e-02,
       -3.01260371e-02, -6.71214890e-03, -6.13617105e-03,
       -7.13042840e-02, -3.71480025e-02, -3.56824286e-02,
       -2.37483419e-02, -4.15065661e-02, -2.41943244e-02,
       -2.15350054e-02, -3.47637828e-03, -4.41284776e-02, 4.64568138e-02,
       -1.24983741e-02, -3.48024368e-02, -1.78241655e-02,
       -3.27507257e-02, -1.33533608e-02, -5.00321970e-04, 6.61558285e-02,
       5.44031598e-02, 2.11081058e-02, -2.60567926e-02, -4.57929634e-02,
       -2.52879485e-02, -4.07358296e-02, -1.40739633e-02, 6.65146038e-02,
       9.30751488e-02, 3.72413956e-02, 2.63972320e-02, 5.72893284e-02,
       5.89231681e-03, -1.34291761e-02, -4.78268377e-02, -7.59288529e-03,
       -3.96340527e-02, -1.96116641e-02, 3.87039431e-03, -3.95304943e-03,
       -3.73929273e-03, -5.30200228e-02, -3.21066827e-02,
       -4.56700251e-02, -9.58302058e-03, -3.60387228e-02, 6.84258668e-03,
       2.49063480e-03, 2.39867426e-04, 4.17281687e-02, 7.72266323e-03,
       -1.92455705e-02, -5.53893931e-02, 3.03973909e-03, -3.96156125e-02,
       -2.91615203e-02, -2.14691479e-02, -1.48861865e-02,
       -1.07289595e-03, -5.24837635e-02, -2.78474055e-02,
       -5.52231185e-02, -7.84491096e-03, -4.25959602e-02,
       -4.40432085e-03, -1.09731713e-02, -3.86338099e-03,
       -2.97895651e-02, -3.57983671e-02, -1.50753530e-02,
       -2.29903609e-02, -1.29143018e-02, -2.26936825e-02, 2.91211754e-02,
       1.02587901e-02, -2.22757179e-02, -3.12965214e-02, -4.02841493e-02,
       -1.82414819e-02, -5.15961982e-02, -2.23929305e-02, 2.32641641e-02,
       5.58744073e-02, 7.39094894e-03, -7.35076144e-03, -2.63732541e-02,
       -3.66672128e-02, -1.40173668e-02, -2.51209810e-02,
       -1.67401042e-02, -2.60375887e-02, 2.79958025e-02, 4.11605462e-03,
       -3.01418826e-02, -1.86650250e-02, -2.92003695e-02,
       -2.32842602e-02, -6.12059794e-02, -3.04453317e-02, 7.11447792e-03,
       4.28340919e-02, 6.53212331e-03, 2.45345552e-02, 5.28339595e-02,
       1.80909261e-02, -9.23868362e-03, -3.38033475e-02, -3.71397415e-04,
       -2.74505168e-02, -2.20753402e-02, -8.53940845e-03, 1.67110227e-02,
       2.74882019e-02, -2.10750327e-02, -1.82167273e-02, -3.72577161e-02,
       -9.04872920e-03, -2.61617284e-02, 8.56024399e-03, 1.67373382e-02,
       -1.03544062e-02, 3.68189849e-02, 3.44621670e-03, 1.05741052e-02,
       -5.11785373e-02, -5.17588167e-04, -2.74097845e-02,
       -1.85579769e-02, -3.84948067e-02, -3.00246081e-03,
       -5.56448381e-03, -3.67247090e-02, -1.13015501e-02,
       -5.82717247e-02, -8.76639318e-03, -3.61148529e-02,
       -9.35373455e-03, -1.73359439e-02, 1.71677656e-02, -1.97048206e-02,
       -3.14077102e-02, -1.09124482e-02, -2.23606415e-02,
       -1.13078542e-02, 4.62661730e-03, 5.22130989e-02, 3.21955010e-02,
       -2.97482572e-02, -2.23471560e-02, -2.87143346e-02,
       -2.40669809e-02, -5.58341518e-02, -4.36794339e-03, 1.85846761e-02,
       5.31262085e-02, 1.57692526e-02, -2.86652111e-02, -2.02240087e-02,
       -1.74037162e-02, -2.50220299e-03, -4.81258593e-02,
       -4.72970214e-03, -9.49046481e-03, 8.22747964e-03, -1.78404134e-02,
       -5.23334928e-02, -2.51845252e-02, -2.50597876e-02,
       -8.09825677e-03, -4.36638221e-02, 2.93226093e-02, -6.53650786e-04,
       2.85484381e-02, -3.34174931e-02, -1.15282303e-02, 3.84985879e-02,
       1.87968407e-02, 5.47216423e-02, 2.16102190e-02, 3.25862058e-02,
       -1.12986835e-02, 5.11251739e-04, -1.70310587e-02, -2.38986723e-02,
       -1.02925943e-02, -2.64320243e-02, 4.81533399e-03, -2.82153226e-02,
       7.88284559e-03, -1.49774347e-02, -5.29338373e-03, -2.51488406e-02,
       -2.91324202e-02, -1.17924549e-02, -1.65514033e-02, 1.44632068e-02,
       1.50094763e-03, 7.08562210e-02, 5.23076244e-02, 5.57149313e-02,
       -1.16565619e-02, -2.85517331e-02, -3.94520164e-03,
       -3.19199893e-03, -2.46899063e-03, -2.10363865e-02,
       -5.12010651e-03, -1.60330571e-02, -1.64143462e-02,
       -2.82854326e-02, -3.23054790e-02, -2.19460092e-02,
       -2.41683014e-02, 5.24411211e-03, -3.43460701e-02, 4.63812705e-03,
       -1.06880199e-02, -1.07122511e-02, -3.29828598e-02,
       -4.61155586e-02, -2.42776442e-02, -8.73913523e-03, 4.77946103e-02,
       1.40741896e-02, 8.03371221e-02, 3.97427045e-02, 3.27776335e-02,
       -3.91459800e-02, -2.54895967e-02, -2.39633974e-02,
       -1.38107222e-02, -2.57195532e-03, -3.08152884e-02,
       -9.53093730e-03, -2.47686002e-02, -2.03597602e-02,
       -2.53428910e-02, -3.03859115e-02, 5.90646267e-03, 1.07473135e-02,
       5.91249838e-02, -4.92377998e-03, 2.00878438e-02, -3.38381864e-02,
       -3.54076624e-02, -3.22131179e-02, -1.86206996e-02,
       -1.89512521e-02, -2.06542984e-02, -1.67182982e-02,
       -1.67856254e-02, 2.34859455e-02, 7.40905032e-02, 6.91908598e-02,
       3.79634509e-03, 7.68281845e-03, -2.89678830e-03, -5.42958034e-03,
       -2.32223775e-02, -1.94078702e-02, -6.50424603e-03,
       -3.65233165e-03, 5.83812548e-03, 1.31328246e-02, -1.44000594e-02,
       -2.43065339e-02, -2.11494993e-02, -1.06275119e-02,
       -2.82947049e-02, 8.58675223e-03, 6.38283938e-02, 5.80494516e-02,
       -1.45211443e-05, 2.59037479e-04, 5.54027082e-03, -9.88122076e-03,
       -1.75175741e-02, -5.61985746e-02, -2.27398854e-02,
       -7.17506558e-03, 7.77986227e-03, -1.17943985e-02, 2.58361641e-02,
       2.99114902e-02, 2.80117374e-02, -1.20785953e-02, -2.67545581e-02,
       -9.07677412e-03, -1.65209956e-02, -9.04403161e-03,
       -1.33752904e-03, 1.32132238e-02, 6.31531328e-02, 6.49652928e-02,
       2.75730956e-02, -3.45795639e-02, -1.89472642e-02, -2.07958929e-02,
       -1.87701713e-02, -1.81445181e-02, 5.28487004e-03, 3.78734507e-02,
       2.92804651e-02, -2.52742339e-02, -3.74360085e-02, -1.45913968e-02,
       -2.51756534e-02, -1.58756059e-02, -3.61019687e-04, 8.01849924e-03,
       3.17444503e-02, 3.47814634e-02, -1.88482646e-02, -6.52681142e-02,
       -2.80412249e-02, -3.43715176e-02, -3.88972796e-02,
       -3.36954519e-02, -4.58482560e-03, -2.31203064e-02,
       -2.72610597e-02, -1.21268705e-02, -2.84355301e-02,
       -5.85387461e-03, 4.42465171e-02, 5.88500649e-02, 3.33141461e-02,
       2.10654121e-02, -1.23298145e-04, -1.63865108e-02, -6.36202097e-03,
       -3.30339745e-02, -1.79269072e-02, -1.10975886e-02, 4.43573575e-03,
       2.02581901e-02, 1.64928213e-02, -2.87282038e-02, -3.79501916e-02,
       -2.74899546e-02, -3.50895375e-02, -2.01216079e-02, 3.67509685e-02,
       5.87965958e-02, 2.40636151e-02, 1.28551591e-02, -2.72512008e-02,
       -3.70230898e-02, -2.11497732e-02, -3.14412713e-02,
       -1.65114198e-02, -6.22089673e-03, 1.79656651e-02, 2.00383104e-02,
       1.11084729e-02, 2.81710625e-02, 7.49314530e-03, -9.80422646e-03,
       -1.79313384e-02, -1.50311124e-02, -1.33104417e-02,
       -1.36508709e-02, 9.29106120e-03, 7.52628408e-03, 4.74120677e-02,
       4.99935225e-02, -1.76660009e-02, -3.61469798e-02, -2.62943693e-02,
       -2.00998131e-02, -1.99468900e-02, -1.98456403e-02, 9.98814031e-03,
       1.36486134e-02, -9.01742745e-03, -1.04210619e-02, -1.87711902e-02,
       -6.15088781e-03, -3.43892048e-03, -3.77671467e-03, 2.06941962e-02,
       7.64653273e-03, 3.06471083e-02, 3.43691222e-02, -2.15744693e-02,
       -4.37206179e-02, -2.01915558e-02, -1.58106070e-02,
       -5.50119486e-03, 1.48761459e-02, 2.51863971e-02, -1.02404980e-02,
       -1.35767804e-02, -5.57244662e-03, -1.96954906e-02,
       -2.19349973e-02, 3.89134847e-02, 7.35237002e-02, 2.29086969e-02,
       1.71967931e-02, -1.13957580e-02, -2.18256470e-02, 5.78216743e-04,
       -2.20378861e-02, -1.87466834e-02, -9.24584176e-03, 2.59431135e-02,
       1.76771488e-02, -1.91959031e-02, -2.86390111e-02, -1.82726122e-02,
       4.74485423e-04, -1.14582907e-02, -3.85139580e-03, 9.18186828e-03,
       2.97480840e-02, 3.66073125e-03, 1.28393341e-02, -2.78036091e-02,
       -2.80007981e-02, -4.94918507e-03, -1.54820746e-02,
       -1.48536032e-02, -1.25647988e-02, 5.73797151e-03, 1.60194412e-02,
       1.45815136e-02, 2.08301693e-02, -4.57343966e-04, -1.99014111e-03,
       -3.51790572e-03, 1.38309761e-03, 3.75350867e-03, -5.09268651e-03,
       2.67295334e-02, 1.75787508e-02, 3.05038448e-02, 3.37847546e-02,
       -2.82501820e-02, -3.80954966e-02, -8.80011544e-03,
       -7.42748240e-03, 8.73774663e-03, 2.25155670e-02, 4.89868689e-03,
       -1.02143018e-02, -2.64404621e-02, -6.72992412e-03,
       -1.12898508e-02, -7.10303150e-03, -1.77318230e-02,
       -1.47670340e-02, 3.94320721e-03, -3.61898751e-03, 2.28828490e-02,
       -3.73206171e-03, -2.10290682e-02, -3.67764123e-02,
       -4.65198839e-03, -1.94920842e-02, -3.13735055e-03,
       -2.33293306e-02, -6.53767819e-03, -5.57931699e-03, 2.39701979e-02,
       7.48524582e-03, 5.65213151e-02, 1.10971062e-02, 2.94917822e-02,
       1.52406534e-02, -1.99558120e-03, 2.55294964e-02, 1.16347289e-02,
       2.97679789e-02, -4.66057158e-04, 4.98387851e-02, 9.08402074e-03,
       2.61798594e-02, 1.86864175e-02, 2.72461120e-02, -3.88623029e-02,
       -2.29607467e-02, -4.83935094e-03, -1.81447137e-02, 1.99555811e-02,
       -1.23057794e-02, 5.28960722e-03, -2.76247226e-02, -4.80544977e-02,
       -1.47575056e-02, -1.26169343e-02, 1.74296480e-02, -1.00404508e-02,
       1.38697661e-02, -1.97868682e-02, 1.61004066e-02, -2.58723665e-02,
       -1.80493202e-02, 2.35090964e-02, 1.75051410e-02, 2.17201244e-02,
       8.35406128e-03, 3.61215435e-02, 3.43134836e-03, 1.97549015e-02,
       5.29233366e-03, 2.22757068e-02, 3.45188417e-02, 2.36961916e-02,
       2.54721586e-02, -1.09973950e-02, 2.11235676e-02, -2.25018035e-03,
       4.02045771e-02, 2.12233886e-02, 2.29013134e-02, -1.92778092e-02,
       -1.29413344e-02, 1.17325131e-03, -6.40506670e-03, -8.55458993e-03,
       -2.34334096e-02, 9.65421088e-03, -2.63454933e-02, -2.51228623e-02,
       -1.40286507e-02, -1.38050560e-02, -4.86337207e-03,
       -3.32051292e-02, -8.65265355e-03, -4.35895063e-02, 1.59814619e-02,
       -2.05784701e-02, -2.03463361e-02, -2.56107524e-02,
       -5.11124730e-03, 4.31695627e-03, -1.11276936e-02, 1.64839625e-02,
       3.20254592e-03, 9.96086840e-03, -6.34555239e-03, -3.43529396e-02,
       -2.17984151e-02, -3.00452346e-03, 1.14900423e-02, -7.53782969e-03,
       2.23955195e-02, -3.58448550e-03, 1.10472199e-02, -1.53787807e-02,
       -3.48403342e-02, 2.09083389e-02, 1.75780784e-02, 1.62836742e-02,
       -1.79118142e-02, -1.92934722e-02, -8.61849822e-03,
       -8.81072041e-03, -9.88194346e-03, 1.55027602e-02, 2.37780381e-02,
       4.58534202e-03, 7.16877962e-03, -2.56646592e-02, -1.62819717e-02,
       -8.57774448e-03, -4.26625647e-03, 5.95021853e-03, 2.28190087e-02,
       -1.29832523e-02, -5.07501978e-03, 5.76619990e-03, -6.85618352e-03,
       1.11015970e-02, -1.06913242e-02, 8.40090867e-03, -1.81044023e-02,
       -1.93033367e-02, -6.36009872e-03, -1.11285150e-02,
       -6.88584580e-04, -2.18719058e-02, -7.89046008e-03,
       -3.77648361e-02, 7.45945750e-03, -1.04966648e-02, -1.38685771e-03,
       3.05438470e-02, -6.85260491e-03, -5.19291498e-04, -1.94288641e-02,
       -1.88077334e-03, -1.28222918e-02, -4.24361322e-03, 2.23982111e-02,
       4.29349840e-02, 7.65549531e-03, -1.77996233e-02, -1.15268985e-02,
       -4.43385355e-02, -1.24161066e-02, -4.67429645e-02,
       -5.80171915e-03, 1.91561077e-02, 2.88040712e-02, -2.51984060e-01 ]
